svm_type c_svc
kernel_type rbf
gamma 0.142857
nr_class 5
total_sv 47
rho -0.0628785 0.17969 0.0594442 0.243186 -0.102457 0.207712 -0.0728808 0.208111 0.515045 0.184904
label 6 1 3 4 5
nr_sv 8 7 11 9 12
SV
0.1268374273093021 0.8908342879030278 0.3974590022404118 1 1:0.256716 2:0.349807 3:-0.870925 4:-0.90976 5:-0.981864 6:-0.869735 7:0.568974 
0 0 0.7180751415228797 0.8792855434293883 1:0.355224 2:0.504247 3:-0.890725 4:-0.85415 5:-0.97886 6:-0.809527 7:0.563688 
1 1 1 1 1:0.119403 2:0.130502 3:-0.838212 4:-0.928323 5:-0.982802 6:-0.895394 7:0.569992 
1 0 0 1 1:0.18806 2:0.318919 3:-0.95814 4:-0.900919 5:-0.982576 6:-0.874326 7:0.574506 
0 0 0 1 1:0.301493 2:0.474903 3:-0.939059 4:-0.922545 5:-0.983247 6:-0.90715 7:0.574135 
1 1 1 1 1:0.238806 2:0.164479 3:-0.994759 4:-0.900629 5:-0.987093 6:-0.866096 7:0.575131 
1 1 1 1 1:0.208955 2:0.232432 3:-0.808786 4:-0.84294 5:-0.972989 6:-0.813338 7:0.561198 
0 0 0.6698636027497416 0 1:0.79403 2:1 3:-0.910456 4:-0.78216 5:-0.975448 6:-0.727748 7:0.555987 
-0.1268374273093021 1 0.3335535306124452 1 1:-0.886567 2:-0.809575 3:-0.896035 4:-0.986765 5:-0.987121 6:-0.969919 7:0.573344 
-0 0 0 0.9562124624227819 1:-0.961194 2:-0.787336 3:-0.980227 4:-0.998019 5:-0.986792 6:-0.962417 7:0.573407 
-0 0.02807911262235189 0 1 1:-0.916418 2:-0.766023 3:-0.946561 4:-0.993484 5:-0.986699 6:-0.956795 7:0.573394 
-1 1 1 1 1:-0.779104 2:-0.546718 3:-0.912135 4:-0.984891 5:-0.986425 6:-0.950015 7:0.573276 
-1 0 0 1 1:-0.865672 2:-0.662085 3:-0.961017 4:-0.995986 5:-0.986804 6:-0.963187 7:0.573432 
-1 1 1 1 1:-0.734328 2:-0.399691 3:-0.952111 4:-0.989442 5:-0.986658 6:-0.956207 7:0.573508 
-1 1 1 1 1:-0.734328 2:-0.40834 3:-0.961188 4:-0.990321 5:-0.986674 6:-0.95466 7:0.573325 
-0 -0.02807911262235189 1 1 1:-0.119403 2:-0.440618 3:0.183352 4:-0.309442 5:-0.570662 6:-0.419692 7:0.60178 
-0 -0 0 1 1:-0.0567164 2:-0.600309 3:0.540293 4:-0.240738 5:-0.44271 6:-0.426362 7:0.504251 
-0 -1 0 1 1:-0.328358 2:-0.830579 3:0.135395 4:-0.531693 5:-0.760885 6:-0.680275 7:0.540714 
-0.8908342879030278 -1 0 1 1:-0.158209 2:-0.591815 3:0.110731 4:-0.41361 5:-0.682889 6:-0.545045 7:0.662044 
-1 -1 1 1 1:-0.131343 2:-0.469807 3:-0.0615739 4:-0.254943 5:-0.57808 6:-0.414581 7:0.653165 
-0 -0 1 0 1:0.38806 2:0.119691 3:0.404642 4:0.0472215 5:-0.19756 6:-0.138491 7:0.888797 
-0 -0 1 1 1:-0.0179104 2:-0.35305 3:0.232337 4:-0.259871 5:-0.522819 6:-0.368494 7:0.663329 
-0 -0 0.5653680426246929 0.6528652834483298 1:0.041791 2:-0.377761 3:0.382718 4:-0.207497 5:-0.44716 6:-0.336787 7:0.701606 
-0 -0 1 0 1:0.0328358 2:-0.421158 3:0.467672 4:-0.163433 5:-0.369276 6:-0.31331 7:0.529756 
-1 -1 1 1 1:-0.423881 2:-0.872278 3:-0.279095 4:-0.582617 5:-0.834281 6:-0.7002 7:0.586503 
-1 -0 1 0 1:0.170149 2:0.1861 3:0.225486 4:-0.0446743 5:-0.304744 6:-0.0499552 7:0.682826 
-0 -0 -1 1 1:0.337313 2:-0.498069 3:-0.210242 4:0.00180506 5:-0.59922 6:-0.195234 7:0.113546 
-1 -1 -1 1 1:0.107463 2:-0.458224 3:-0.340755 4:-0.392255 5:-0.822599 6:-0.670486 7:0.371887 
-0.09190421314726165 -0.3335535306124452 -0.5526862559330216 0.4474026960104921 1:0.883582 2:0.156757 3:0.633125 4:0.983573 5:1 6:0.948888 7:-0.768373 
-0.6934935333657712 -0 -1 1 1:0.480597 2:-0.218378 3:0.243641 4:-0.162854 5:-0.705921 6:-0.414234 7:0.0674476 
-0 -0 -1 0 1:0.61194 2:0.230888 3:0.230282 4:0.198932 5:-0.0406796 6:0.105979 7:0.346798 
-1 -1 -1 1 1:0.489552 2:-0.00849421 3:-0.571294 4:-0.308379 5:-0.81863 6:-0.328384 7:0.38243 
-0 -0 -0.0126817866916713 0 1:0.755224 2:-0.0911197 3:0.229939 4:0.556465 5:-0.00210843 6:0.407451 7:-0.493293 
-1 -1 -1 1 1:0.334328 2:-0.390116 3:-0.752094 4:-0.231655 5:-0.863543 6:-0.357925 7:0.382165 
-1 -0 -1 0 1:0.680597 2:0.556757 3:-0.252376 4:0.102301 5:-0.410073 6:0.209068 7:0.228906 
-1 -0.9562124624227819 -0 -0 1:0.2 2:-0.0455598 3:-0.145157 4:-0.959448 5:-0.989791 6:-0.997133 7:0.577585 
-0 -1 -1 -0.2716742615701646 1:-0.364179 2:-1 3:-0.43667 4:-0.917124 5:-0.978615 6:-0.927569 7:0.564421 
-1 -0 -0.2835069691097479 -0 1:0.358209 2:-0.0702703 3:0.0840115 4:-0.964096 5:-0.984474 6:-0.985845 7:0.577661 
-1 -0 -0 -1 1:0.232836 2:-0.0409266 3:-0.141046 4:-0.975769 5:-0.987113 6:-0.983116 7:0.575792 
-0 -0 -1 -0.9968714712392823 1:0.438806 2:-0.175753 3:0.595444 4:-0.834147 5:-0.940797 6:-0.981045 7:0.607859 
-0 -0 -1 -0 1:0.755224 2:0.0332046 3:0.717736 4:-0.964308 5:-0.983938 6:-0.989674 7:0.578734 
-0 -1 -1 -1 1:-0.256716 2:-0.968958 3:-0.516828 4:-0.925917 5:-0.989627 6:-0.925741 7:0.564255 
-1 -0 -0.4225004230005467 -1 1:0.58806 2:0.454826 3:0.290571 4:-0.962047 5:-0.983373 6:-0.93132 7:0.568797 
-0 -1 -1 -0.178856963201045 1:-0.0537313 2:-0.677683 3:-0.171191 4:-0.902078 5:-0.968335 6:-0.945848 7:0.570252 
-1 -1 -0.9468578913380352 -1 1:-0.137313 2:-0.763552 3:-0.500385 4:-0.952742 5:-0.991114 6:-0.929726 7:0.571078 
-1 -1 -0 -0 1:-0.286567 2:-0.54332 3:-0.569581 4:-0.986215 5:-0.986375 6:-0.968716 7:0.574013 
-0.8792855434293883 -1 -1 -0 1:-0.274627 2:-0.83305 3:-0.463047 4:-0.959003 5:-0.984862 6:-0.946939 7:0.569708 
